<?xml version="1.0" encoding="UTF-8" standalone="yes"?>
<PMML xmlns="http://www.dmg.org/PMML-4_4" xmlns:data="http://jpmml.org/jpmml-model/InlineTable" version="4.3">
	<Header>
		<Application name="JPMML-SkLearn" version="1.6.3"/>
		<Timestamp>2020-07-11T01:30:06Z</Timestamp>
	</Header>
	<DataDictionary>
		<DataField name="y" optype="categorical" dataType="integer">
			<Value value="0"/>
			<Value value="1"/>
		</DataField>
		<DataField name="x1" optype="continuous" dataType="float"/>
		<DataField name="x2" optype="continuous" dataType="float"/>
		<DataField name="x3" optype="continuous" dataType="float"/>
		<DataField name="x4" optype="continuous" dataType="float"/>
		<DataField name="x5" optype="continuous" dataType="float"/>
		<DataField name="x6" optype="continuous" dataType="float"/>
		<DataField name="x7" optype="continuous" dataType="float"/>
		<DataField name="x8" optype="continuous" dataType="float"/>
		<DataField name="x9" optype="continuous" dataType="float"/>
		<DataField name="x10" optype="continuous" dataType="float"/>
		<DataField name="x11" optype="continuous" dataType="float"/>
		<DataField name="x12" optype="continuous" dataType="float"/>
		<DataField name="x13" optype="continuous" dataType="float"/>
		<DataField name="x14" optype="continuous" dataType="float"/>
		<DataField name="x15" optype="continuous" dataType="float"/>
		<DataField name="x16" optype="continuous" dataType="float"/>
		<DataField name="x17" optype="continuous" dataType="float"/>
		<DataField name="x18" optype="continuous" dataType="float"/>
		<DataField name="x19" optype="continuous" dataType="float"/>
		<DataField name="x20" optype="continuous" dataType="float"/>
		<DataField name="x21" optype="continuous" dataType="float"/>
		<DataField name="x22" optype="continuous" dataType="float"/>
		<DataField name="x23" optype="continuous" dataType="float"/>
		<DataField name="x24" optype="continuous" dataType="float"/>
		<DataField name="x25" optype="continuous" dataType="float"/>
		<DataField name="x26" optype="continuous" dataType="float"/>
		<DataField name="x27" optype="continuous" dataType="float"/>
		<DataField name="x29" optype="continuous" dataType="float"/>
		<DataField name="x30" optype="continuous" dataType="float"/>
		<DataField name="x31" optype="continuous" dataType="float"/>
		<DataField name="x32" optype="continuous" dataType="float"/>
		<DataField name="x33" optype="continuous" dataType="float"/>
		<DataField name="x34" optype="continuous" dataType="float"/>
		<DataField name="x35" optype="continuous" dataType="float"/>
		<DataField name="x36" optype="continuous" dataType="float"/>
		<DataField name="x37" optype="continuous" dataType="float"/>
		<DataField name="x38" optype="continuous" dataType="float"/>
		<DataField name="x39" optype="continuous" dataType="float"/>
		<DataField name="x40" optype="continuous" dataType="float"/>
		<DataField name="x41" optype="continuous" dataType="float"/>
		<DataField name="x42" optype="continuous" dataType="float"/>
		<DataField name="x43" optype="continuous" dataType="float"/>
		<DataField name="x44" optype="continuous" dataType="float"/>
		<DataField name="x45" optype="continuous" dataType="float"/>
		<DataField name="x46" optype="continuous" dataType="float"/>
		<DataField name="x47" optype="continuous" dataType="float"/>
		<DataField name="x48" optype="continuous" dataType="float"/>
		<DataField name="x49" optype="continuous" dataType="float"/>
		<DataField name="x50" optype="continuous" dataType="float"/>
		<DataField name="x51" optype="continuous" dataType="float"/>
		<DataField name="x52" optype="continuous" dataType="float"/>
		<DataField name="x53" optype="continuous" dataType="float"/>
		<DataField name="x54" optype="continuous" dataType="float"/>
		<DataField name="x55" optype="continuous" dataType="float"/>
		<DataField name="x56" optype="continuous" dataType="float"/>
		<DataField name="x57" optype="continuous" dataType="float"/>
		<DataField name="x58" optype="continuous" dataType="float"/>
		<DataField name="x59" optype="continuous" dataType="float"/>
		<DataField name="x60" optype="continuous" dataType="float"/>
		<DataField name="x61" optype="continuous" dataType="float"/>
		<DataField name="x62" optype="continuous" dataType="float"/>
		<DataField name="x63" optype="continuous" dataType="float"/>
		<DataField name="x64" optype="continuous" dataType="float"/>
		<DataField name="x65" optype="continuous" dataType="float"/>
		<DataField name="x66" optype="continuous" dataType="float"/>
		<DataField name="x67" optype="continuous" dataType="float"/>
		<DataField name="x68" optype="continuous" dataType="float"/>
		<DataField name="x69" optype="continuous" dataType="float"/>
		<DataField name="x70" optype="continuous" dataType="float"/>
		<DataField name="x71" optype="continuous" dataType="float"/>
		<DataField name="x72" optype="continuous" dataType="float"/>
		<DataField name="x73" optype="continuous" dataType="float"/>
		<DataField name="x74" optype="continuous" dataType="float"/>
		<DataField name="x75" optype="continuous" dataType="float"/>
		<DataField name="x76" optype="continuous" dataType="float"/>
		<DataField name="x77" optype="continuous" dataType="float"/>
		<DataField name="x78" optype="continuous" dataType="float"/>
		<DataField name="x79" optype="continuous" dataType="float"/>
		<DataField name="x80" optype="continuous" dataType="float"/>
		<DataField name="x81" optype="continuous" dataType="float"/>
		<DataField name="x82" optype="continuous" dataType="float"/>
		<DataField name="x83" optype="continuous" dataType="float"/>
		<DataField name="x84" optype="continuous" dataType="float"/>
		<DataField name="x85" optype="continuous" dataType="float"/>
		<DataField name="x86" optype="continuous" dataType="float"/>
		<DataField name="x87" optype="continuous" dataType="float"/>
		<DataField name="x88" optype="continuous" dataType="float"/>
		<DataField name="x89" optype="continuous" dataType="float"/>
		<DataField name="x90" optype="continuous" dataType="float"/>
		<DataField name="x91" optype="continuous" dataType="float"/>
		<DataField name="x92" optype="continuous" dataType="float"/>
		<DataField name="x93" optype="continuous" dataType="float"/>
		<DataField name="x95" optype="continuous" dataType="float"/>
		<DataField name="x96" optype="continuous" dataType="float"/>
		<DataField name="x97" optype="continuous" dataType="float"/>
		<DataField name="x98" optype="continuous" dataType="float"/>
		<DataField name="x99" optype="continuous" dataType="float"/>
		<DataField name="x100" optype="continuous" dataType="float"/>
		<DataField name="x101" optype="continuous" dataType="float"/>
		<DataField name="x102" optype="continuous" dataType="float"/>
		<DataField name="x103" optype="continuous" dataType="float"/>
		<DataField name="x104" optype="continuous" dataType="float"/>
		<DataField name="x105" optype="continuous" dataType="float"/>
		<DataField name="x106" optype="continuous" dataType="float"/>
		<DataField name="x107" optype="continuous" dataType="float"/>
		<DataField name="x108" optype="continuous" dataType="float"/>
		<DataField name="x109" optype="continuous" dataType="float"/>
		<DataField name="x110" optype="continuous" dataType="float"/>
		<DataField name="x111" optype="continuous" dataType="float"/>
		<DataField name="x113" optype="continuous" dataType="float"/>
		<DataField name="x114" optype="continuous" dataType="float"/>
		<DataField name="x115" optype="continuous" dataType="float"/>
		<DataField name="x116" optype="continuous" dataType="float"/>
		<DataField name="x117" optype="continuous" dataType="float"/>
		<DataField name="x118" optype="continuous" dataType="float"/>
		<DataField name="x119" optype="continuous" dataType="float"/>
		<DataField name="x120" optype="continuous" dataType="float"/>
		<DataField name="x121" optype="continuous" dataType="float"/>
		<DataField name="x122" optype="continuous" dataType="float"/>
		<DataField name="x124" optype="continuous" dataType="float"/>
		<DataField name="x125" optype="continuous" dataType="float"/>
		<DataField name="x126" optype="continuous" dataType="float"/>
		<DataField name="x127" optype="continuous" dataType="float"/>
		<DataField name="x128" optype="continuous" dataType="float"/>
		<DataField name="x129" optype="continuous" dataType="float"/>
		<DataField name="x130" optype="continuous" dataType="float"/>
		<DataField name="x131" optype="continuous" dataType="float"/>
		<DataField name="x132" optype="continuous" dataType="float"/>
		<DataField name="x133" optype="continuous" dataType="float"/>
		<DataField name="x134" optype="continuous" dataType="float"/>
		<DataField name="x135" optype="continuous" dataType="float"/>
		<DataField name="x136" optype="continuous" dataType="float"/>
		<DataField name="x137" optype="continuous" dataType="float"/>
		<DataField name="x138" optype="continuous" dataType="float"/>
		<DataField name="x141" optype="continuous" dataType="float"/>
		<DataField name="x143" optype="continuous" dataType="float"/>
		<DataField name="x144" optype="continuous" dataType="float"/>
		<DataField name="x145" optype="continuous" dataType="float"/>
		<DataField name="x146" optype="continuous" dataType="float"/>
		<DataField name="x147" optype="continuous" dataType="float"/>
		<DataField name="x148" optype="continuous" dataType="float"/>
		<DataField name="x149" optype="continuous" dataType="float"/>
		<DataField name="x150" optype="continuous" dataType="float"/>
		<DataField name="x151" optype="continuous" dataType="float"/>
		<DataField name="x152" optype="continuous" dataType="float"/>
		<DataField name="x153" optype="continuous" dataType="float"/>
		<DataField name="x154" optype="continuous" dataType="float"/>
		<DataField name="x155" optype="continuous" dataType="float"/>
		<DataField name="x156" optype="continuous" dataType="float"/>
		<DataField name="x157" optype="continuous" dataType="float"/>
		<DataField name="x158" optype="continuous" dataType="float"/>
		<DataField name="x159" optype="continuous" dataType="float"/>
		<DataField name="x160" optype="continuous" dataType="float"/>
		<DataField name="x161" optype="continuous" dataType="float"/>
		<DataField name="x162" optype="continuous" dataType="float"/>
		<DataField name="x163" optype="continuous" dataType="float"/>
		<DataField name="x164" optype="continuous" dataType="float"/>
		<DataField name="x165" optype="continuous" dataType="float"/>
		<DataField name="x166" optype="continuous" dataType="float"/>
		<DataField name="x167" optype="continuous" dataType="float"/>
		<DataField name="x168" optype="continuous" dataType="float"/>
		<DataField name="x169" optype="continuous" dataType="float"/>
	</DataDictionary>
	<MiningModel functionName="classification" algorithmName="XGBoost (GBTree)" x-mathContext="float">
		<MiningSchema>
			<MiningField name="y" usageType="target"/>
			<MiningField name="x1"/>
			<MiningField name="x2"/>
			<MiningField name="x3"/>
			<MiningField name="x4"/>
			<MiningField name="x5"/>
			<MiningField name="x6"/>
			<MiningField name="x7"/>
			<MiningField name="x8"/>
			<MiningField name="x9"/>
			<MiningField name="x10"/>
			<MiningField name="x11"/>
			<MiningField name="x12"/>
			<MiningField name="x13"/>
			<MiningField name="x14"/>
			<MiningField name="x15"/>
			<MiningField name="x16"/>
			<MiningField name="x17"/>
			<MiningField name="x18"/>
			<MiningField name="x19"/>
			<MiningField name="x20"/>
			<MiningField name="x21"/>
			<MiningField name="x22"/>
			<MiningField name="x23"/>
			<MiningField name="x24"/>
			<MiningField name="x25"/>
			<MiningField name="x26"/>
			<MiningField name="x27"/>
			<MiningField name="x29"/>
			<MiningField name="x30"/>
			<MiningField name="x31"/>
			<MiningField name="x32"/>
			<MiningField name="x33"/>
			<MiningField name="x34"/>
			<MiningField name="x35"/>
			<MiningField name="x36"/>
			<MiningField name="x37"/>
			<MiningField name="x38"/>
			<MiningField name="x39"/>
			<MiningField name="x40"/>
			<MiningField name="x41"/>
			<MiningField name="x42"/>
			<MiningField name="x43"/>
			<MiningField name="x44"/>
			<MiningField name="x45"/>
			<MiningField name="x46"/>
			<MiningField name="x47"/>
			<MiningField name="x48"/>
			<MiningField name="x49"/>
			<MiningField name="x50"/>
			<MiningField name="x51"/>
			<MiningField name="x52"/>
			<MiningField name="x53"/>
			<MiningField name="x54"/>
			<MiningField name="x55"/>
			<MiningField name="x56"/>
			<MiningField name="x57"/>
			<MiningField name="x58"/>
			<MiningField name="x59"/>
			<MiningField name="x60"/>
			<MiningField name="x61"/>
			<MiningField name="x62"/>
			<MiningField name="x63"/>
			<MiningField name="x64"/>
			<MiningField name="x65"/>
			<MiningField name="x66"/>
			<MiningField name="x67"/>
			<MiningField name="x68"/>
			<MiningField name="x69"/>
			<MiningField name="x70"/>
			<MiningField name="x71"/>
			<MiningField name="x72"/>
			<MiningField name="x73"/>
			<MiningField name="x74"/>
			<MiningField name="x75"/>
			<MiningField name="x76"/>
			<MiningField name="x77"/>
			<MiningField name="x78"/>
			<MiningField name="x79"/>
			<MiningField name="x80"/>
			<MiningField name="x81"/>
			<MiningField name="x82"/>
			<MiningField name="x83"/>
			<MiningField name="x84"/>
			<MiningField name="x85"/>
			<MiningField name="x86"/>
			<MiningField name="x87"/>
			<MiningField name="x88"/>
			<MiningField name="x89"/>
			<MiningField name="x90"/>
			<MiningField name="x91"/>
			<MiningField name="x92"/>
			<MiningField name="x93"/>
			<MiningField name="x95"/>
			<MiningField name="x96"/>
			<MiningField name="x97"/>
			<MiningField name="x98"/>
			<MiningField name="x99"/>
			<MiningField name="x100"/>
			<MiningField name="x101"/>
			<MiningField name="x102"/>
			<MiningField name="x103"/>
			<MiningField name="x104"/>
			<MiningField name="x105"/>
			<MiningField name="x106"/>
			<MiningField name="x107"/>
			<MiningField name="x108"/>
			<MiningField name="x109"/>
			<MiningField name="x110"/>
			<MiningField name="x111"/>
			<MiningField name="x113"/>
			<MiningField name="x114"/>
			<MiningField name="x115"/>
			<MiningField name="x116"/>
			<MiningField name="x117"/>
			<MiningField name="x118"/>
			<MiningField name="x119"/>
			<MiningField name="x120"/>
			<MiningField name="x121"/>
			<MiningField name="x122"/>
			<MiningField name="x124"/>
			<MiningField name="x125"/>
			<MiningField name="x126"/>
			<MiningField name="x127"/>
			<MiningField name="x128"/>
			<MiningField name="x129"/>
			<MiningField name="x130"/>
			<MiningField name="x131"/>
			<MiningField name="x132"/>
			<MiningField name="x133"/>
			<MiningField name="x134"/>
			<MiningField name="x135"/>
			<MiningField name="x136"/>
			<MiningField name="x137"/>
			<MiningField name="x138"/>
			<MiningField name="x141"/>
			<MiningField name="x143"/>
			<MiningField name="x144"/>
			<MiningField name="x145"/>
			<MiningField name="x146"/>
			<MiningField name="x147"/>
			<MiningField name="x148"/>
			<MiningField name="x149"/>
			<MiningField name="x150"/>
			<MiningField name="x151"/>
			<MiningField name="x152"/>
			<MiningField name="x153"/>
			<MiningField name="x154"/>
			<MiningField name="x155"/>
			<MiningField name="x156"/>
			<MiningField name="x157"/>
			<MiningField name="x158"/>
			<MiningField name="x159"/>
			<MiningField name="x160"/>
			<MiningField name="x161"/>
			<MiningField name="x162"/>
			<MiningField name="x163"/>
			<MiningField name="x164"/>
			<MiningField name="x165"/>
			<MiningField name="x166"/>
			<MiningField name="x167"/>
			<MiningField name="x168"/>
			<MiningField name="x169"/>
		</MiningSchema>
		<Segmentation multipleModelMethod="modelChain" missingPredictionTreatment="returnMissing">
			<Segment id="1">
				<True/>
				<MiningModel functionName="regression" x-mathContext="float">
					<MiningSchema>
						<MiningField name="x1"/>
						<MiningField name="x2"/>
						<MiningField name="x3"/>
						<MiningField name="x4"/>
						<MiningField name="x5"/>
						<MiningField name="x6"/>
						<MiningField name="x7"/>
						<MiningField name="x8"/>
						<MiningField name="x9"/>
						<MiningField name="x10"/>
						<MiningField name="x11"/>
						<MiningField name="x12"/>
						<MiningField name="x13"/>
						<MiningField name="x14"/>
						<MiningField name="x15"/>
						<MiningField name="x16"/>
						<MiningField name="x17"/>
						<MiningField name="x18"/>
						<MiningField name="x19"/>
						<MiningField name="x20"/>
						<MiningField name="x21"/>
						<MiningField name="x22"/>
						<MiningField name="x23"/>
						<MiningField name="x24"/>
						<MiningField name="x25"/>
						<MiningField name="x26"/>
						<MiningField name="x27"/>
						<MiningField name="x29"/>
						<MiningField name="x30"/>
						<MiningField name="x31"/>
						<MiningField name="x32"/>
						<MiningField name="x33"/>
						<MiningField name="x34"/>
						<MiningField name="x35"/>
						<MiningField name="x36"/>
						<MiningField name="x37"/>
						<MiningField name="x38"/>
						<MiningField name="x39"/>
						<MiningField name="x40"/>
						<MiningField name="x41"/>
						<MiningField name="x42"/>
						<MiningField name="x43"/>
						<MiningField name="x44"/>
						<MiningField name="x45"/>
						<MiningField name="x46"/>
						<MiningField name="x47"/>
						<MiningField name="x48"/>
						<MiningField name="x49"/>
						<MiningField name="x50"/>
						<MiningField name="x51"/>
						<MiningField name="x52"/>
						<MiningField name="x53"/>
						<MiningField name="x54"/>
						<MiningField name="x55"/>
						<MiningField name="x56"/>
						<MiningField name="x57"/>
						<MiningField name="x58"/>
						<MiningField name="x59"/>
						<MiningField name="x60"/>
						<MiningField name="x61"/>
						<MiningField name="x62"/>
						<MiningField name="x63"/>
						<MiningField name="x64"/>
						<MiningField name="x65"/>
						<MiningField name="x66"/>
						<MiningField name="x67"/>
						<MiningField name="x68"/>
						<MiningField name="x69"/>
						<MiningField name="x70"/>
						<MiningField name="x71"/>
						<MiningField name="x72"/>
						<MiningField name="x73"/>
						<MiningField name="x74"/>
						<MiningField name="x75"/>
						<MiningField name="x76"/>
						<MiningField name="x77"/>
						<MiningField name="x78"/>
						<MiningField name="x79"/>
						<MiningField name="x80"/>
						<MiningField name="x81"/>
						<MiningField name="x82"/>
						<MiningField name="x83"/>
						<MiningField name="x84"/>
						<MiningField name="x85"/>
						<MiningField name="x86"/>
						<MiningField name="x87"/>
						<MiningField name="x88"/>
						<MiningField name="x89"/>
						<MiningField name="x90"/>
						<MiningField name="x91"/>
						<MiningField name="x92"/>
						<MiningField name="x93"/>
						<MiningField name="x95"/>
						<MiningField name="x96"/>
						<MiningField name="x97"/>
						<MiningField name="x98"/>
						<MiningField name="x99"/>
						<MiningField name="x100"/>
						<MiningField name="x101"/>
						<MiningField name="x102"/>
						<MiningField name="x103"/>
						<MiningField name="x104"/>
						<MiningField name="x105"/>
						<MiningField name="x106"/>
						<MiningField name="x107"/>
						<MiningField name="x108"/>
						<MiningField name="x109"/>
						<MiningField name="x110"/>
						<MiningField name="x111"/>
						<MiningField name="x113"/>
						<MiningField name="x114"/>
						<MiningField name="x115"/>
						<MiningField name="x116"/>
						<MiningField name="x117"/>
						<MiningField name="x118"/>
						<MiningField name="x119"/>
						<MiningField name="x120"/>
						<MiningField name="x121"/>
						<MiningField name="x122"/>
						<MiningField name="x124"/>
						<MiningField name="x125"/>
						<MiningField name="x126"/>
						<MiningField name="x127"/>
						<MiningField name="x128"/>
						<MiningField name="x129"/>
						<MiningField name="x130"/>
						<MiningField name="x131"/>
						<MiningField name="x132"/>
						<MiningField name="x133"/>
						<MiningField name="x134"/>
						<MiningField name="x135"/>
						<MiningField name="x136"/>
						<MiningField name="x137"/>
						<MiningField name="x138"/>
						<MiningField name="x141"/>
						<MiningField name="x143"/>
						<MiningField name="x144"/>
						<MiningField name="x145"/>
						<MiningField name="x146"/>
						<MiningField name="x147"/>
						<MiningField name="x148"/>
						<MiningField name="x149"/>
						<MiningField name="x150"/>
						<MiningField name="x151"/>
						<MiningField name="x152"/>
						<MiningField name="x153"/>
						<MiningField name="x154"/>
						<MiningField name="x155"/>
						<MiningField name="x156"/>
						<MiningField name="x157"/>
						<MiningField name="x158"/>
						<MiningField name="x159"/>
						<MiningField name="x160"/>
						<MiningField name="x161"/>
						<MiningField name="x162"/>
						<MiningField name="x163"/>
						<MiningField name="x164"/>
						<MiningField name="x165"/>
						<MiningField name="x166"/>
						<MiningField name="x167"/>
						<MiningField name="x168"/>
						<MiningField name="x169"/>
					</MiningSchema>
					<Output>
						<OutputField name="xgbValue" optype="continuous" dataType="float" isFinalResult="false"/>
					</Output>
					<Segmentation multipleModelMethod="sum">
						<Segment id="1">
							<True/>
							<TreeModel functionName="regression" noTrueChildStrategy="returnLastPrediction" x-mathContext="float">
								<MiningSchema>
									<MiningField name="x8"/>
									<MiningField name="x9"/>
									<MiningField name="x10"/>
									<MiningField name="x16"/>
									<MiningField name="x18"/>
									<MiningField name="x20"/>
									<MiningField name="x21"/>
									<MiningField name="x33"/>
									<MiningField name="x38"/>
									<MiningField name="x41"/>
									<MiningField name="x43"/>
									<MiningField name="x55"/>
									<MiningField name="x64"/>
									<MiningField name="x70"/>
									<MiningField name="x71"/>
									<MiningField name="x93"/>
									<MiningField name="x95"/>
									<MiningField name="x101"/>
									<MiningField name="x102"/>
									<MiningField name="x114"/>
									<MiningField name="x136"/>
									<MiningField name="x137"/>
								</MiningSchema>
								<Node score="-0.19961657">
									<True/>
									<Node score="-0.06792453">
										<SimplePredicate field="x71" operator="greaterOrEqual" value="0.98046875"/>
										<Node score="-0.040000003">
											<SimplePredicate field="x8" operator="greaterOrEqual" value="0.01171875"/>
											<Node score="-0.15555556">
												<SimplePredicate field="x38" operator="greaterOrEqual" value="-0.07421875"/>
												<Node score="0.1">
													<SimplePredicate field="x20" operator="greaterOrEqual" value="-0.00390625"/>
												</Node>
												<Node score="0.05">
													<SimplePredicate field="x137" operator="greaterOrEqual" value="0.00390625"/>
												</Node>
											</Node>
											<Node score="0.022222223">
												<SimplePredicate field="x41" operator="greaterOrEqual" value="0.42578125"/>
												<Node score="0.1887324">
													<SimplePredicate field="x101" operator="greaterOrEqual" value="0.6953125"/>
												</Node>
											</Node>
										</Node>
										<Node score="-0.152">
											<SimplePredicate field="x38" operator="greaterOrEqual" value="0.5703125"/>
											<Node score="0.13571428">
												<SimplePredicate field="x102" operator="greaterOrEqual" value="-0.13671875"/>
												<Node score="-0.120000005">
													<SimplePredicate field="x21" operator="greaterOrEqual" value="0.62890625"/>
												</Node>
											</Node>
											<Node score="0.022222223">
												<SimplePredicate field="x16" operator="greaterOrEqual" value="-0.0078125"/>
											</Node>
										</Node>
										<Node score="-0.15064102">
											<SimplePredicate field="x114" operator="greaterOrEqual" value="0.12109375"/>
											<Node score="-0.045544557">
												<SimplePredicate field="x9" operator="greaterOrEqual" value="0.35546875"/>
											</Node>
										</Node>
										<Node score="0.075">
											<SimplePredicate field="x10" operator="greaterOrEqual" value="-0.11328125"/>
										</Node>
									</Node>
									<Node score="-0.16923077">
										<SimplePredicate field="x9" operator="greaterOrEqual" value="0.87109375"/>
										<Node score="-0.05">
											<SimplePredicate field="x41" operator="greaterOrEqual" value="0.94921875"/>
											<Node score="0.14285715">
												<SimplePredicate field="x55" operator="greaterOrEqual" value="0.4765625"/>
											</Node>
										</Node>
										<Node score="0.022222223">
											<SimplePredicate field="x18" operator="greaterOrEqual" value="-0.0390625"/>
										</Node>
									</Node>
									<Node score="-0.075">
										<SimplePredicate field="x95" operator="greaterOrEqual" value="0.98828125"/>
										<Node score="-0.1832636">
											<SimplePredicate field="x70" operator="greaterOrEqual" value="-0.08984375"/>
											<Node score="-0.1137255">
												<SimplePredicate field="x43" operator="greaterOrEqual" value="0.64453125"/>
											</Node>
										</Node>
										<Node score="0.09090909">
											<SimplePredicate field="x64" operator="greaterOrEqual" value="-0.03125"/>
										</Node>
									</Node>
									<Node score="-0.16129033">
										<SimplePredicate field="x136" operator="greaterOrEqual" value="0.97265625"/>
										<Node score="0.11111112">
											<SimplePredicate field="x93" operator="greaterOrEqual" value="0.73046875"/>
										</Node>
									</Node>
									<Node score="-0.094736844">
										<SimplePredicate field="x33" operator="greaterOrEqual" value="0.97265625"/>
									</Node>
								</Node>
							</TreeModel>
						</Segment>
						<Segment id="2">
							<True/>
							<TreeModel functionName="regression" noTrueChildStrategy="returnLastPrediction" x-mathContext="float">
								<MiningSchema>
									<MiningField name="x8"/>
									<MiningField name="x9"/>
									<MiningField name="x13"/>
									<MiningField name="x21"/>
									<MiningField name="x27"/>
									<MiningField name="x31"/>
									<MiningField name="x34"/>
									<MiningField name="x38"/>
									<MiningField name="x41"/>
									<MiningField name="x43"/>
									<MiningField name="x46"/>
									<MiningField name="x53"/>
									<MiningField name="x71"/>
									<MiningField name="x87"/>
									<MiningField name="x88"/>
									<MiningField name="x90"/>
									<MiningField name="x96"/>
									<MiningField name="x98"/>
									<MiningField name="x102"/>
									<MiningField name="x122"/>
									<MiningField name="x127"/>
									<MiningField name="x134"/>
									<MiningField name="x136"/>
									<MiningField name="x143"/>
									<MiningField name="x164"/>
								</MiningSchema>
								<Node score="-0.18142782">
									<True/>
									<Node score="-0.071054876">
										<SimplePredicate field="x71" operator="greaterOrEqual" value="0.95703125"/>
										<Node score="-0.06492001">
											<SimplePredicate field="x8" operator="greaterOrEqual" value="-0.01171875"/>
											<Node score="0.1083275">
												<SimplePredicate field="x38" operator="greaterOrEqual" value="-0.05859375"/>
												<Node score="-0.13375838">
													<SimplePredicate field="x98" operator="greaterOrEqual" value="-0.0546875"/>
													<Node score="-0.014847859">
														<SimplePredicate field="x87" operator="greaterOrEqual" value="0.1640625"/>
													</Node>
												</Node>
											</Node>
											<Node score="0.015655918">
												<SimplePredicate field="x43" operator="greaterOrEqual" value="0.359375"/>
												<Node score="0.17661391">
													<SimplePredicate field="x90" operator="greaterOrEqual" value="-0.49609375"/>
												</Node>
											</Node>
											<Node score="0.12880427">
												<SimplePredicate field="x31" operator="greaterOrEqual" value="0.58984375"/>
											</Node>
										</Node>
										<Node score="-0.14218752">
											<SimplePredicate field="x38" operator="greaterOrEqual" value="0.58984375"/>
											<Node score="0.116716824">
												<SimplePredicate field="x102" operator="greaterOrEqual" value="-0.13671875"/>
												<Node score="-0.10599647">
													<SimplePredicate field="x21" operator="greaterOrEqual" value="0.859375"/>
												</Node>
											</Node>
											<Node score="0.028822074">
												<SimplePredicate field="x127" operator="greaterOrEqual" value="0.2578125"/>
											</Node>
										</Node>
										<Node score="-0.13523327">
											<SimplePredicate field="x13" operator="greaterOrEqual" value="0.01953125"/>
											<Node score="0.122061506">
												<SimplePredicate field="x34" operator="greaterOrEqual" value="-0.00390625"/>
											</Node>
										</Node>
										<Node score="0.090715036">
											<SimplePredicate field="x96" operator="greaterOrEqual" value="0.91796875"/>
										</Node>
									</Node>
									<Node score="-0.15216646">
										<SimplePredicate field="x9" operator="greaterOrEqual" value="0.86328125"/>
										<Node score="0.06799384">
											<SimplePredicate field="x41" operator="greaterOrEqual" value="0.59765625"/>
											<Node score="-0.0035263149">
												<SimplePredicate field="x46" operator="greaterOrEqual" value="-0.08984375"/>
												<Node score="0.1450369">
													<SimplePredicate field="x88" operator="greaterOrEqual" value="-0.64453125"/>
												</Node>
											</Node>
											<Node score="-0.12076586">
												<SimplePredicate field="x53" operator="greaterOrEqual" value="0.71875"/>
											</Node>
										</Node>
										<Node score="-0.02693517">
											<SimplePredicate field="x27" operator="greaterOrEqual" value="0.42578125"/>
										</Node>
									</Node>
									<Node score="-0.17601983">
										<SimplePredicate field="x143" operator="greaterOrEqual" value="0.91015625"/>
										<Node score="-0.12930848">
											<SimplePredicate field="x164" operator="greaterOrEqual" value="0.98828125"/>
											<Node score="-0.029101908">
												<SimplePredicate field="x122" operator="greaterOrEqual" value="0.01171875"/>
											</Node>
										</Node>
									</Node>
									<Node score="-0.1548417">
										<SimplePredicate field="x136" operator="greaterOrEqual" value="0.65234375"/>
										<Node score="0.044557557">
											<SimplePredicate field="x134" operator="greaterOrEqual" value="0.90234375"/>
										</Node>
									</Node>
								</Node>
							</TreeModel>
						</Segment>
						<Segment id="3">
							<True/>
							<TreeModel functionName="regression" noTrueChildStrategy="returnLastPrediction" x-mathContext="float">
								<MiningSchema>
									<MiningField name="x9"/>
									<MiningField name="x13"/>
									<MiningField name="x30"/>
									<MiningField name="x34"/>
									<MiningField name="x35"/>
									<MiningField name="x38"/>
									<MiningField name="x39"/>
									<MiningField name="x42"/>
									<MiningField name="x44"/>
									<MiningField name="x72"/>
									<MiningField name="x76"/>
									<MiningField name="x96"/>
									<MiningField name="x97"/>
									<MiningField name="x98"/>
									<MiningField name="x102"/>
									<MiningField name="x107"/>
									<MiningField name="x111"/>
									<MiningField name="x121"/>
									<MiningField name="x128"/>
									<MiningField name="x133"/>
									<MiningField name="x150"/>
									<MiningField name="x152"/>
									<MiningField name="x156"/>
								</MiningSchema>
								<Node score="-0.16778316">
									<True/>
									<Node score="-0.08412385">
										<SimplePredicate field="x97" operator="greaterOrEqual" value="0.98046875"/>
										<Node score="-0.06184683">
											<SimplePredicate field="x9" operator="greaterOrEqual" value="0.87890625"/>
											<Node score="-0.052100804">
												<SimplePredicate field="x39" operator="greaterOrEqual" value="-0.2109375"/>
												<Node score="-0.106623076">
													<SimplePredicate field="x121" operator="greaterOrEqual" value="0.015625"/>
													<Node score="0.042152625">
														<SimplePredicate field="x72" operator="greaterOrEqual" value="0.2421875"/>
													</Node>
												</Node>
												<Node score="0.12309346">
													<SimplePredicate field="x128" operator="greaterOrEqual" value="-0.04296875"/>
												</Node>
											</Node>
											<Node score="0.009951119">
												<SimplePredicate field="x156" operator="greaterOrEqual" value="-0.23046875"/>
												<Node score="0.1641023">
													<SimplePredicate field="x98" operator="greaterOrEqual" value="-0.08203125"/>
												</Node>
											</Node>
										</Node>
										<Node score="-0.09396413">
											<SimplePredicate field="x38" operator="greaterOrEqual" value="0.58203125"/>
											<Node score="0.012368343">
												<SimplePredicate field="x44" operator="greaterOrEqual" value="0.765625"/>
												<Node score="0.15050484">
													<SimplePredicate field="x102" operator="greaterOrEqual" value="-0.11328125"/>
												</Node>
											</Node>
											<Node score="0.1240079">
												<SimplePredicate field="x76" operator="greaterOrEqual" value="0.22265625"/>
											</Node>
										</Node>
										<Node score="-0.13509731">
											<SimplePredicate field="x13" operator="greaterOrEqual" value="0.0546875"/>
											<Node score="0.057344507">
												<SimplePredicate field="x35" operator="greaterOrEqual" value="0.03515625"/>
											</Node>
										</Node>
										<Node score="0.055962004">
											<SimplePredicate field="x96" operator="greaterOrEqual" value="0.9140625"/>
										</Node>
									</Node>
									<Node score="-0.16071962">
										<SimplePredicate field="x9" operator="greaterOrEqual" value="0.24609375"/>
										<Node score="0.1399735">
											<SimplePredicate field="x133" operator="greaterOrEqual" value="0.51171875"/>
											<Node score="-0.02237178">
												<SimplePredicate field="x39" operator="greaterOrEqual" value="-0.3046875"/>
												<Node score="-0.15072154">
													<SimplePredicate field="x150" operator="greaterOrEqual" value="-0.32421875"/>
												</Node>
											</Node>
											<Node score="-0.025966821">
												<SimplePredicate field="x111" operator="greaterOrEqual" value="0.21484375"/>
											</Node>
										</Node>
										<Node score="-0.0015103346">
											<SimplePredicate field="x107" operator="greaterOrEqual" value="0.8125"/>
										</Node>
										<Node score="-0.04007846">
											<SimplePredicate field="x152" operator="greaterOrEqual" value="0.75"/>
										</Node>
									</Node>
									<Node score="-0.007335514">
										<SimplePredicate field="x42" operator="greaterOrEqual" value="0.7734375"/>
									</Node>
									<Node score="-0.007448949">
										<SimplePredicate field="x30" operator="greaterOrEqual" value="0.80859375"/>
									</Node>
									<Node score="-0.08688332">
										<SimplePredicate field="x34" operator="greaterOrEqual" value="0.31640625"/>
									</Node>
								</Node>
							</TreeModel>
						</Segment>
						<Segment id="4">
							<True/>
							<TreeModel functionName="regression" noTrueChildStrategy="returnLastPrediction" x-mathContext="float">
								<MiningSchema>
									<MiningField name="x8"/>
									<MiningField name="x11"/>
									<MiningField name="x21"/>
									<MiningField name="x27"/>
									<MiningField name="x35"/>
									<MiningField name="x38"/>
									<MiningField name="x39"/>
									<MiningField name="x41"/>
									<MiningField name="x42"/>
									<MiningField name="x43"/>
									<MiningField name="x46"/>
									<MiningField name="x66"/>
									<MiningField name="x69"/>
									<MiningField name="x70"/>
									<MiningField name="x71"/>
									<MiningField name="x95"/>
									<MiningField name="x144"/>
								</MiningSchema>
								<Node score="-0.15735579">
									<True/>
									<Node score="-0.111797825">
										<SimplePredicate field="x71" operator="greaterOrEqual" value="0.98046875"/>
										<Node score="0.048258983">
											<SimplePredicate field="x8" operator="greaterOrEqual" value="0.05078125"/>
											<Node score="-0.13137273">
												<SimplePredicate field="x38" operator="greaterOrEqual" value="-0.07421875"/>
												<Node score="0.044340737">
													<SimplePredicate field="x8" operator="greaterOrEqual" value="0.875"/>
												</Node>
												<Node score="-0.01880217">
													<SimplePredicate field="x46" operator="greaterOrEqual" value="0.703125"/>
												</Node>
											</Node>
											<Node score="0.15291874">
												<SimplePredicate field="x69" operator="greaterOrEqual" value="0.97265625"/>
											</Node>
										</Node>
										<Node score="-0.10243753">
											<SimplePredicate field="x38" operator="greaterOrEqual" value="0.57421875"/>
											<Node score="0.1145999">
												<SimplePredicate field="x11" operator="greaterOrEqual" value="0.03125"/>
												<Node score="-0.09018086">
													<SimplePredicate field="x27" operator="greaterOrEqual" value="-0.0390625"/>
												</Node>
											</Node>
											<Node score="0.07567976">
												<SimplePredicate field="x43" operator="greaterOrEqual" value="0.97265625"/>
											</Node>
										</Node>
										<Node score="-0.11923995">
											<SimplePredicate field="x39" operator="greaterOrEqual" value="-0.32421875"/>
											<Node score="0.11755016">
												<SimplePredicate field="x35" operator="greaterOrEqual" value="0.01953125"/>
											</Node>
										</Node>
										<Node score="0.042478226">
											<SimplePredicate field="x21" operator="greaterOrEqual" value="0.98828125"/>
										</Node>
									</Node>
									<Node score="-0.11172362">
										<SimplePredicate field="x42" operator="greaterOrEqual" value="0.640625"/>
										<Node score="0.12935476">
											<SimplePredicate field="x144" operator="greaterOrEqual" value="-0.19140625"/>
										</Node>
									</Node>
									<Node score="-0.1373277">
										<SimplePredicate field="x8" operator="greaterOrEqual" value="0.06640625"/>
										<Node score="0.13355839">
											<SimplePredicate field="x41" operator="greaterOrEqual" value="0.578125"/>
											<Node score="0.0076033636">
												<SimplePredicate field="x66" operator="greaterOrEqual" value="0.73046875"/>
											</Node>
										</Node>
									</Node>
									<Node score="-0.01741458">
										<SimplePredicate field="x95" operator="greaterOrEqual" value="0.82421875"/>
										<Node score="-0.14206173">
											<SimplePredicate field="x70" operator="greaterOrEqual" value="-0.08984375"/>
										</Node>
									</Node>
								</Node>
							</TreeModel>
						</Segment>
						<Segment id="5">
							<True/>
							<TreeModel functionName="regression" noTrueChildStrategy="returnLastPrediction" x-mathContext="float">
								<MiningSchema>
									<MiningField name="x5"/>
									<MiningField name="x8"/>
									<MiningField name="x9"/>
									<MiningField name="x33"/>
									<MiningField name="x37"/>
									<MiningField name="x38"/>
									<MiningField name="x39"/>
									<MiningField name="x41"/>
									<MiningField name="x42"/>
									<MiningField name="x43"/>
									<MiningField name="x61"/>
									<MiningField name="x71"/>
									<MiningField name="x72"/>
									<MiningField name="x75"/>
									<MiningField name="x84"/>
									<MiningField name="x95"/>
									<MiningField name="x99"/>
									<MiningField name="x134"/>
									<MiningField name="x152"/>
								</MiningSchema>
								<Node score="-0.14892092">
									<True/>
									<Node score="-0.085777">
										<SimplePredicate field="x71" operator="greaterOrEqual" value="0.98046875"/>
										<Node score="0.034439694">
											<SimplePredicate field="x8" operator="greaterOrEqual" value="0.13671875"/>
											<Node score="-0.053721882">
												<SimplePredicate field="x38" operator="greaterOrEqual" value="-0.0546875"/>
											</Node>
											<Node score="0.14526352">
												<SimplePredicate field="x61" operator="greaterOrEqual" value="-0.08984375"/>
												<Node score="0.03679214">
													<SimplePredicate field="x5" operator="greaterOrEqual" value="0.47265625"/>
												</Node>
											</Node>
										</Node>
										<Node score="-0.13128813">
											<SimplePredicate field="x38" operator="greaterOrEqual" value="0.58203125"/>
											<Node score="0.00536945">
												<SimplePredicate field="x43" operator="greaterOrEqual" value="0.26171875"/>
												<Node score="0.113753095">
													<SimplePredicate field="x37" operator="greaterOrEqual" value="0.05859375"/>
												</Node>
											</Node>
											<Node score="0.03321309">
												<SimplePredicate field="x72" operator="greaterOrEqual" value="0.1015625"/>
											</Node>
										</Node>
										<Node score="-0.05770546">
											<SimplePredicate field="x39" operator="greaterOrEqual" value="-0.31640625"/>
											<Node score="-0.12868026">
												<SimplePredicate field="x99" operator="greaterOrEqual" value="-0.19921875"/>
											</Node>
										</Node>
										<Node score="0.11970226">
											<SimplePredicate field="x9" operator="greaterOrEqual" value="0.09765625"/>
										</Node>
									</Node>
									<Node score="-0.13508199">
										<SimplePredicate field="x9" operator="greaterOrEqual" value="0.8203125"/>
										<Node score="-0.016182845">
											<SimplePredicate field="x41" operator="greaterOrEqual" value="0.2734375"/>
											<Node score="-0.10670012">
												<SimplePredicate field="x152" operator="greaterOrEqual" value="0.91796875"/>
												<Node score="0.042756077">
													<SimplePredicate field="x75" operator="greaterOrEqual" value="-0.38671875"/>
												</Node>
											</Node>
											<Node score="0.13801073">
												<SimplePredicate field="x84" operator="greaterOrEqual" value="-0.08203125"/>
											</Node>
										</Node>
									</Node>
									<Node score="0.0060456446">
										<SimplePredicate field="x42" operator="greaterOrEqual" value="0.640625"/>
									</Node>
									<Node score="-0.11988129">
										<SimplePredicate field="x33" operator="greaterOrEqual" value="0.8671875"/>
										<Node score="0.06553783">
											<SimplePredicate field="x134" operator="greaterOrEqual" value="-0.0703125"/>
										</Node>
									</Node>
									<Node score="-0.13149536">
										<SimplePredicate field="x95" operator="greaterOrEqual" value="0.81640625"/>
									</Node>
								</Node>
							</TreeModel>
						</Segment>
						<Segment id="6">
							<True/>
							<TreeModel functionName="regression" noTrueChildStrategy="returnLastPrediction" x-mathContext="float">
								<MiningSchema>
									<MiningField name="x8"/>
									<MiningField name="x18"/>
									<MiningField name="x33"/>
									<MiningField name="x38"/>
									<MiningField name="x39"/>
									<MiningField name="x43"/>
									<MiningField name="x45"/>
									<MiningField name="x74"/>
									<MiningField name="x89"/>
									<MiningField name="x91"/>
									<MiningField name="x93"/>
									<MiningField name="x98"/>
									<MiningField name="x100"/>
									<MiningField name="x130"/>
									<MiningField name="x143"/>
									<MiningField name="x158"/>
								</MiningSchema>
								<Node score="-0.14199479">
									<True/>
									<Node score="-0.06180675">
										<SimplePredicate field="x143" operator="greaterOrEqual" value="0.94921875"/>
										<Node score="0.14270608">
											<SimplePredicate field="x8" operator="greaterOrEqual" value="0.05859375"/>
											<Node score="-0.1259286">
												<SimplePredicate field="x38" operator="greaterOrEqual" value="-0.06640625"/>
												<Node score="0.04292482">
													<SimplePredicate field="x98" operator="greaterOrEqual" value="0.09765625"/>
												</Node>
											</Node>
											<Node score="-0.021419017">
												<SimplePredicate field="x130" operator="greaterOrEqual" value="-0.02734375"/>
											</Node>
										</Node>
										<Node score="0.086016536">
											<SimplePredicate field="x38" operator="greaterOrEqual" value="0.59375"/>
											<Node score="0.075185515">
												<SimplePredicate field="x45" operator="greaterOrEqual" value="0.29296875"/>
												<Node score="-0.07983745">
													<SimplePredicate field="x91" operator="greaterOrEqual" value="0.609375"/>
												</Node>
											</Node>
											<Node score="-0.08602728">
												<SimplePredicate field="x93" operator="greaterOrEqual" value="-0.08984375"/>
											</Node>
										</Node>
										<Node score="-0.10563324">
											<SimplePredicate field="x39" operator="greaterOrEqual" value="-0.31640625"/>
											<Node score="0.10488987">
												<SimplePredicate field="x74" operator="greaterOrEqual" value="0.61328125"/>
											</Node>
										</Node>
										<Node score="0.0879043">
											<SimplePredicate field="x100" operator="greaterOrEqual" value="-0.01953125"/>
										</Node>
									</Node>
									<Node score="-0.12468783">
										<SimplePredicate field="x100" operator="greaterOrEqual" value="0.7734375"/>
										<Node score="0.096777745">
											<SimplePredicate field="x89" operator="greaterOrEqual" value="0.81640625"/>
										</Node>
										<Node score="-0.005565386">
											<SimplePredicate field="x158" operator="greaterOrEqual" value="0.08203125"/>
										</Node>
									</Node>
									<Node score="-0.11256283">
										<SimplePredicate field="x33" operator="greaterOrEqual" value="0.8671875"/>
										<Node score="0.14255802">
											<SimplePredicate field="x18" operator="greaterOrEqual" value="-0.02734375"/>
										</Node>
									</Node>
									<Node score="0.06611382">
										<SimplePredicate field="x43" operator="greaterOrEqual" value="0.45703125"/>
										<Node score="-0.118423715">
											<SimplePredicate field="x43" operator="greaterOrEqual" value="0.48046875"/>
										</Node>
									</Node>
								</Node>
							</TreeModel>
						</Segment>
						<Segment id="7">
							<True/>
							<TreeModel functionName="regression" noTrueChildStrategy="returnLastPrediction" x-mathContext="float">
								<MiningSchema>
									<MiningField name="x8"/>
									<MiningField name="x9"/>
									<MiningField name="x27"/>
									<MiningField name="x33"/>
									<MiningField name="x36"/>
									<MiningField name="x38"/>
									<MiningField name="x39"/>
									<MiningField name="x41"/>
									<MiningField name="x42"/>
									<MiningField name="x62"/>
									<MiningField name="x64"/>
									<MiningField name="x67"/>
									<MiningField name="x95"/>
									<MiningField name="x99"/>
									<MiningField name="x138"/>
									<MiningField name="x143"/>
									<MiningField name="x168"/>
								</MiningSchema>
								<Node score="-0.13658108">
									<True/>
									<Node score="-0.050601877">
										<SimplePredicate field="x143" operator="greaterOrEqual" value="0.96484375"/>
										<Node score="-0.0012769673">
											<SimplePredicate field="x8" operator="greaterOrEqual" value="0.11328125"/>
											<Node score="-0.1089523">
												<SimplePredicate field="x38" operator="greaterOrEqual" value="-0.06640625"/>
												<Node score="-0.002274605">
													<SimplePredicate field="x138" operator="greaterOrEqual" value="-0.03125"/>
												</Node>
											</Node>
											<Node score="0.13526838">
												<SimplePredicate field="x41" operator="greaterOrEqual" value="0.57421875"/>
												<Node score="0.027167816">
													<SimplePredicate field="x168" operator="greaterOrEqual" value="-0.16015625"/>
												</Node>
											</Node>
										</Node>
										<Node score="0.0066329907">
											<SimplePredicate field="x38" operator="greaterOrEqual" value="0.56640625"/>
											<Node score="0.11229584">
												<SimplePredicate field="x64" operator="greaterOrEqual" value="0.0390625"/>
												<Node score="-0.046190705">
													<SimplePredicate field="x27" operator="greaterOrEqual" value="0.0234375"/>
												</Node>
											</Node>
											<Node score="-0.111916624">
												<SimplePredicate field="x99" operator="greaterOrEqual" value="-0.2109375"/>
											</Node>
										</Node>
										<Node score="-0.10185784">
											<SimplePredicate field="x39" operator="greaterOrEqual" value="-0.31640625"/>
											<Node score="0.048578337">
												<SimplePredicate field="x36" operator="greaterOrEqual" value="0.0234375"/>
											</Node>
										</Node>
										<Node score="0.08786534">
											<SimplePredicate field="x9" operator="greaterOrEqual" value="0.08984375"/>
										</Node>
									</Node>
									<Node score="-0.121591926">
										<SimplePredicate field="x9" operator="greaterOrEqual" value="0.58203125"/>
										<Node score="0.1458127">
											<SimplePredicate field="x41" operator="greaterOrEqual" value="0.2734375"/>
											<Node score="-0.10122235">
												<SimplePredicate field="x62" operator="greaterOrEqual" value="0.234375"/>
												<Node score="0.08111373">
													<SimplePredicate field="x8" operator="greaterOrEqual" value="0.453125"/>
												</Node>
											</Node>
											<Node score="-0.03470647">
												<SimplePredicate field="x67" operator="greaterOrEqual" value="-0.09375"/>
											</Node>
										</Node>
									</Node>
									<Node score="0.02125635">
										<SimplePredicate field="x42" operator="greaterOrEqual" value="0.5703125"/>
									</Node>
									<Node score="-0.11293614">
										<SimplePredicate field="x33" operator="greaterOrEqual" value="0.98828125"/>
										<Node score="0.10929354">
											<SimplePredicate field="x143" operator="greaterOrEqual" value="0.49609375"/>
										</Node>
									</Node>
									<Node score="-0.119929515">
										<SimplePredicate field="x95" operator="greaterOrEqual" value="0.81640625"/>
									</Node>
								</Node>
							</TreeModel>
						</Segment>
						<Segment id="8">
							<True/>
							<TreeModel functionName="regression" noTrueChildStrategy="returnLastPrediction" x-mathContext="float">
								<MiningSchema>
									<MiningField name="x8"/>
									<MiningField name="x11"/>
									<MiningField name="x18"/>
									<MiningField name="x26"/>
									<MiningField name="x35"/>
									<MiningField name="x38"/>
									<MiningField name="x39"/>
									<MiningField name="x40"/>
									<MiningField name="x41"/>
									<MiningField name="x54"/>
									<MiningField name="x73"/>
									<MiningField name="x86"/>
									<MiningField name="x95"/>
									<MiningField name="x96"/>
									<MiningField name="x97"/>
									<MiningField name="x98"/>
									<MiningField name="x100"/>
									<MiningField name="x111"/>
									<MiningField name="x119"/>
									<MiningField name="x136"/>
									<MiningField name="x145"/>
									<MiningField name="x158"/>
									<MiningField name="x166"/>
								</MiningSchema>
								<Node score="-0.13174973">
									<True/>
									<Node score="-0.06980782">
										<SimplePredicate field="x97" operator="greaterOrEqual" value="0.98046875"/>
										<Node score="-0.020433476">
											<SimplePredicate field="x8" operator="greaterOrEqual" value="-0.02734375"/>
											<Node score="0.038225457">
												<SimplePredicate field="x39" operator="greaterOrEqual" value="-0.30078125"/>
												<Node score="-0.09585082">
													<SimplePredicate field="x158" operator="greaterOrEqual" value="0.87890625"/>
													<Node score="0.050590377">
														<SimplePredicate field="x98" operator="greaterOrEqual" value="0.42578125"/>
													</Node>
												</Node>
												<Node score="0.13449535">
													<SimplePredicate field="x18" operator="greaterOrEqual" value="-0.05078125"/>
												</Node>
											</Node>
											<Node score="0.02469243">
												<SimplePredicate field="x119" operator="greaterOrEqual" value="0.2421875"/>
												<Node score="0.13114405">
													<SimplePredicate field="x73" operator="greaterOrEqual" value="-0.58984375"/>
												</Node>
											</Node>
										</Node>
										<Node score="-0.08799819">
											<SimplePredicate field="x38" operator="greaterOrEqual" value="0.34375"/>
											<Node score="-0.066533044">
												<SimplePredicate field="x41" operator="greaterOrEqual" value="0.63671875"/>
												<Node score="0.13222784">
													<SimplePredicate field="x40" operator="greaterOrEqual" value="0.72265625"/>
												</Node>
											</Node>
											<Node score="0.06986415">
												<SimplePredicate field="x11" operator="greaterOrEqual" value="0.14453125"/>
											</Node>
										</Node>
										<Node score="0.04491225">
											<SimplePredicate field="x96" operator="greaterOrEqual" value="0.92578125"/>
											<Node score="-0.09965078">
												<SimplePredicate field="x166" operator="greaterOrEqual" value="0.00390625"/>
											</Node>
										</Node>
										<Node score="-0.11358988">
											<SimplePredicate field="x111" operator="greaterOrEqual" value="-0.07421875"/>
										</Node>
									</Node>
									<Node score="-0.117036544">
										<SimplePredicate field="x100" operator="greaterOrEqual" value="0.30078125"/>
										<Node score="0.13590084">
											<SimplePredicate field="x54" operator="greaterOrEqual" value="0.06640625"/>
											<Node score="-0.121272884">
												<SimplePredicate field="x95" operator="greaterOrEqual" value="0.8984375"/>
												<Node score="0.003950367">
													<SimplePredicate field="x145" operator="greaterOrEqual" value="0.4921875"/>
												</Node>
											</Node>
											<Node score="-0.004823314">
												<SimplePredicate field="x98" operator="greaterOrEqual" value="0.0390625"/>
											</Node>
										</Node>
									</Node>
									<Node score="-0.10618168">
										<SimplePredicate field="x136" operator="greaterOrEqual" value="0.96875"/>
										<Node score="0.06863853">
											<SimplePredicate field="x95" operator="greaterOrEqual" value="0.68359375"/>
										</Node>
									</Node>
									<Node score="-0.0756756">
										<SimplePredicate field="x35" operator="greaterOrEqual" value="0.94140625"/>
										<Node score="0.056571122">
											<SimplePredicate field="x86" operator="greaterOrEqual" value="0.32421875"/>
										</Node>
									</Node>
									<Node score="-0.11536328">
										<SimplePredicate field="x26" operator="greaterOrEqual" value="0.64453125"/>
									</Node>
								</Node>
							</TreeModel>
						</Segment>
						<Segment id="9">
							<True/>
							<TreeModel functionName="regression" noTrueChildStrategy="returnLastPrediction" x-mathContext="float">
								<MiningSchema>
									<MiningField name="x1"/>
									<MiningField name="x8"/>
									<MiningField name="x9"/>
									<MiningField name="x18"/>
									<MiningField name="x22"/>
									<MiningField name="x33"/>
									<MiningField name="x37"/>
									<MiningField name="x38"/>
									<MiningField name="x39"/>
									<MiningField name="x42"/>
									<MiningField name="x43"/>
									<MiningField name="x44"/>
									<MiningField name="x46"/>
									<MiningField name="x59"/>
									<MiningField name="x71"/>
									<MiningField name="x73"/>
									<MiningField name="x98"/>
									<MiningField name="x109"/>
									<MiningField name="x114"/>
									<MiningField name="x118"/>
									<MiningField name="x125"/>
									<MiningField name="x136"/>
									<MiningField name="x147"/>
									<MiningField name="x164"/>
								</MiningSchema>
								<Node score="-0.12781975">
									<True/>
									<Node score="-0.07779163">
										<SimplePredicate field="x71" operator="greaterOrEqual" value="0.96484375"/>
										<Node score="-0.08594556">
											<SimplePredicate field="x9" operator="greaterOrEqual" value="0.88671875"/>
											<Node score="0.034664508">
												<SimplePredicate field="x39" operator="greaterOrEqual" value="-0.21484375"/>
												<Node score="-0.04475687">
													<SimplePredicate field="x8" operator="greaterOrEqual" value="0.9375"/>
													<Node score="0.09829129">
														<SimplePredicate field="x43" operator="greaterOrEqual" value="0.55078125"/>
													</Node>
												</Node>
												<Node score="-0.112133525">
													<SimplePredicate field="x44" operator="greaterOrEqual" value="0.30078125"/>
												</Node>
											</Node>
											<Node score="0.02881959">
												<SimplePredicate field="x98" operator="greaterOrEqual" value="-0.08203125"/>
												<Node score="0.13331348">
													<SimplePredicate field="x125" operator="greaterOrEqual" value="-0.16796875"/>
												</Node>
											</Node>
											<Node score="0.071949035">
												<SimplePredicate field="x59" operator="greaterOrEqual" value="0.37890625"/>
											</Node>
										</Node>
										<Node score="-0.07075939">
											<SimplePredicate field="x147" operator="greaterOrEqual" value="-0.05859375"/>
											<Node score="-0.1221286">
												<SimplePredicate field="x114" operator="greaterOrEqual" value="0.21484375"/>
												<Node score="-0.0074363793">
													<SimplePredicate field="x46" operator="greaterOrEqual" value="0.79296875"/>
												</Node>
											</Node>
											<Node score="0.08260591">
												<SimplePredicate field="x164" operator="greaterOrEqual" value="0.15234375"/>
											</Node>
										</Node>
										<Node score="-0.06535685">
											<SimplePredicate field="x22" operator="greaterOrEqual" value="-0.08984375"/>
											<Node score="0.102571405">
												<SimplePredicate field="x18" operator="greaterOrEqual" value="-0.05078125"/>
											</Node>
										</Node>
										<Node score="0.08642524">
											<SimplePredicate field="x37" operator="greaterOrEqual" value="0.06640625"/>
										</Node>
									</Node>
									<Node score="-0.12447827">
										<SimplePredicate field="x9" operator="greaterOrEqual" value="0.24609375"/>
										<Node score="0.14855461">
											<SimplePredicate field="x44" operator="greaterOrEqual" value="0.36328125"/>
											<Node score="-0.059444655">
												<SimplePredicate field="x109" operator="greaterOrEqual" value="0.15234375"/>
											</Node>
											<Node score="-0.01041049">
												<SimplePredicate field="x38" operator="greaterOrEqual" value="-0.07421875"/>
											</Node>
										</Node>
										<Node score="-0.06558626">
											<SimplePredicate field="x109" operator="greaterOrEqual" value="0.03515625"/>
											<Node score="0.08003186">
												<SimplePredicate field="x73" operator="greaterOrEqual" value="-0.38671875"/>
											</Node>
										</Node>
										<Node score="-0.040532663">
											<SimplePredicate field="x118" operator="greaterOrEqual" value="0.62890625"/>
										</Node>
									</Node>
									<Node score="-0.11266102">
										<SimplePredicate field="x1" operator="greaterOrEqual" value="0.96484375"/>
										<Node score="0.078712806">
											<SimplePredicate field="x136" operator="greaterOrEqual" value="0.1328125"/>
										</Node>
										<Node score="-0.02433529">
											<SimplePredicate field="x18" operator="greaterOrEqual" value="0.01171875"/>
										</Node>
									</Node>
									<Node score="-0.09141054">
										<SimplePredicate field="x33" operator="greaterOrEqual" value="0.8671875"/>
										<Node score="0.0913927">
											<SimplePredicate field="x18" operator="greaterOrEqual" value="-0.01953125"/>
										</Node>
									</Node>
									<Node score="-4.4429876E-4">
										<SimplePredicate field="x42" operator="greaterOrEqual" value="0.41015625"/>
									</Node>
								</Node>
							</TreeModel>
						</Segment>
						<Segment id="10">
							<True/>
							<TreeModel functionName="regression" noTrueChildStrategy="returnLastPrediction" x-mathContext="float">
								<MiningSchema>
									<MiningField name="x8"/>
									<MiningField name="x9"/>
									<MiningField name="x11"/>
									<MiningField name="x13"/>
									<MiningField name="x16"/>
									<MiningField name="x22"/>
									<MiningField name="x37"/>
									<MiningField name="x38"/>
									<MiningField name="x39"/>
									<MiningField name="x41"/>
									<MiningField name="x73"/>
									<MiningField name="x99"/>
									<MiningField name="x135"/>
									<MiningField name="x143"/>
									<MiningField name="x156"/>
									<MiningField name="x158"/>
									<MiningField name="x164"/>
								</MiningSchema>
								<Node score="-0.12446032">
									<True/>
									<Node score="-0.079954214">
										<SimplePredicate field="x143" operator="greaterOrEqual" value="0.96484375"/>
										<Node score="-0.08099916">
											<SimplePredicate field="x8" operator="greaterOrEqual" value="0.11328125"/>
											<Node score="-0.020641753">
												<SimplePredicate field="x41" operator="greaterOrEqual" value="0.60546875"/>
												<Node score="0.12010989">
													<SimplePredicate field="x99" operator="greaterOrEqual" value="0.21875"/>
													<Node score="-0.0050343485">
														<SimplePredicate field="x38" operator="greaterOrEqual" value="-0.06640625"/>
													</Node>
												</Node>
											</Node>
										</Node>
										<Node score="-0.01664551">
											<SimplePredicate field="x38" operator="greaterOrEqual" value="0.46484375"/>
											<Node score="-0.12200953">
												<SimplePredicate field="x16" operator="greaterOrEqual" value="0.17578125"/>
											</Node>
											<Node score="0.09094219">
												<SimplePredicate field="x11" operator="greaterOrEqual" value="0.05859375"/>
											</Node>
										</Node>
										<Node score="-0.08829441">
											<SimplePredicate field="x39" operator="greaterOrEqual" value="-0.32421875"/>
											<Node score="0.054420143">
												<SimplePredicate field="x73" operator="greaterOrEqual" value="0.33984375"/>
											</Node>
										</Node>
										<Node score="0.04143128">
											<SimplePredicate field="x22" operator="greaterOrEqual" value="0.98828125"/>
										</Node>
									</Node>
									<Node score="-0.122411065">
										<SimplePredicate field="x9" operator="greaterOrEqual" value="0.26953125"/>
										<Node score="-0.020308625">
											<SimplePredicate field="x41" operator="greaterOrEqual" value="0.984375"/>
											<Node score="-0.08896963">
												<SimplePredicate field="x13" operator="greaterOrEqual" value="0.13671875"/>
												<Node score="0.06675389">
													<SimplePredicate field="x9" operator="greaterOrEqual" value="0.796875"/>
												</Node>
											</Node>
											<Node score="0.14278474">
												<SimplePredicate field="x158" operator="greaterOrEqual" value="0.30859375"/>
											</Node>
										</Node>
										<Node score="0.017717782">
											<SimplePredicate field="x156" operator="greaterOrEqual" value="0.7109375"/>
										</Node>
									</Node>
									<Node score="-0.014596693">
										<SimplePredicate field="x164" operator="greaterOrEqual" value="0.82421875"/>
										<Node score="0.04824576">
											<SimplePredicate field="x135" operator="greaterOrEqual" value="-0.01953125"/>
										</Node>
										<Node score="-0.11325256">
											<SimplePredicate field="x13" operator="greaterOrEqual" value="-0.08203125"/>
										</Node>
									</Node>
									<Node score="-0.040180974">
										<SimplePredicate field="x37" operator="greaterOrEqual" value="0.6875"/>
									</Node>
								</Node>
							</TreeModel>
						</Segment>
						<Segment id="11">
							<True/>
							<TreeModel functionName="regression" noTrueChildStrategy="returnLastPrediction" x-mathContext="float">
								<MiningSchema>
									<MiningField name="x9"/>
									<MiningField name="x14"/>
									<MiningField name="x18"/>
									<MiningField name="x19"/>
									<MiningField name="x22"/>
									<MiningField name="x27"/>
									<MiningField name="x34"/>
									<MiningField name="x38"/>
									<MiningField name="x39"/>
									<MiningField name="x40"/>
									<MiningField name="x41"/>
									<MiningField name="x43"/>
									<MiningField name="x71"/>
									<MiningField name="x89"/>
									<MiningField name="x97"/>
									<MiningField name="x105"/>
									<MiningField name="x120"/>
									<MiningField name="x121"/>
									<MiningField name="x133"/>
									<MiningField name="x136"/>
									<MiningField name="x146"/>
									<MiningField name="x157"/>
									<MiningField name="x167"/>
								</MiningSchema>
								<Node score="-0.12145152">
									<True/>
									<Node score="-0.06551236">
										<SimplePredicate field="x71" operator="greaterOrEqual" value="0.98046875"/>
										<Node score="0.026558304">
											<SimplePredicate field="x9" operator="greaterOrEqual" value="0.87890625"/>
											<Node score="-0.078916855">
												<SimplePredicate field="x39" operator="greaterOrEqual" value="-0.21484375"/>
												<Node score="-0.10182796">
													<SimplePredicate field="x121" operator="greaterOrEqual" value="-0.04296875"/>
													<Node score="0.013924643">
														<SimplePredicate field="x27" operator="greaterOrEqual" value="0.30859375"/>
													</Node>
												</Node>
												<Node score="0.09930764">
													<SimplePredicate field="x41" operator="greaterOrEqual" value="0.62109375"/>
												</Node>
											</Node>
											<Node score="0.12558319">
												<SimplePredicate field="x43" operator="greaterOrEqual" value="0.06640625"/>
												<Node score="0.05736586">
													<SimplePredicate field="x167" operator="greaterOrEqual" value="0.04296875"/>
												</Node>
											</Node>
											<Node score="-0.06441522">
												<SimplePredicate field="x105" operator="greaterOrEqual" value="0.11328125"/>
											</Node>
										</Node>
										<Node score="-0.011043563">
											<SimplePredicate field="x38" operator="greaterOrEqual" value="0.08984375"/>
											<Node score="-0.005187681">
												<SimplePredicate field="x18" operator="greaterOrEqual" value="0.00390625"/>
												<Node score="0.101573646">
													<SimplePredicate field="x22" operator="greaterOrEqual" value="-0.09765625"/>
												</Node>
											</Node>
											<Node score="-0.13743483">
												<SimplePredicate field="x22" operator="greaterOrEqual" value="0.28515625"/>
											</Node>
										</Node>
										<Node score="0.060900133">
											<SimplePredicate field="x40" operator="greaterOrEqual" value="0.04296875"/>
											<Node score="-0.09006529">
												<SimplePredicate field="x120" operator="greaterOrEqual" value="-0.45703125"/>
											</Node>
										</Node>
										<Node score="0.055683088">
											<SimplePredicate field="x22" operator="greaterOrEqual" value="0.88671875"/>
										</Node>
									</Node>
									<Node score="-0.11582277">
										<SimplePredicate field="x9" operator="greaterOrEqual" value="0.2890625"/>
										<Node score="-0.043850858">
											<SimplePredicate field="x41" operator="greaterOrEqual" value="0.98046875"/>
											<Node score="0.06315873">
												<SimplePredicate field="x39" operator="greaterOrEqual" value="-0.2890625"/>
												<Node score="-0.10713396">
													<SimplePredicate field="x133" operator="greaterOrEqual" value="0.55859375"/>
												</Node>
											</Node>
											<Node score="0.13529693">
												<SimplePredicate field="x157" operator="greaterOrEqual" value="0.35546875"/>
											</Node>
										</Node>
										<Node score="0.008405273">
											<SimplePredicate field="x97" operator="greaterOrEqual" value="0.953125"/>
										</Node>
										<Node score="-0.024663666">
											<SimplePredicate field="x146" operator="greaterOrEqual" value="0.14453125"/>
										</Node>
									</Node>
									<Node score="-0.09686053">
										<SimplePredicate field="x89" operator="greaterOrEqual" value="0.98828125"/>
										<Node score="0.092485525">
											<SimplePredicate field="x136" operator="greaterOrEqual" value="0.015625"/>
										</Node>
										<Node score="0.0857669">
											<SimplePredicate field="x19" operator="greaterOrEqual" value="0.0234375"/>
										</Node>
									</Node>
									<Node score="-0.08467632">
										<SimplePredicate field="x34" operator="greaterOrEqual" value="0.1484375"/>
										<Node score="0.07339444">
											<SimplePredicate field="x14" operator="greaterOrEqual" value="-0.0859375"/>
										</Node>
									</Node>
									<Node score="-0.07182118">
										<SimplePredicate field="x9" operator="greaterOrEqual" value="0.08984375"/>
									</Node>
								</Node>
							</TreeModel>
						</Segment>
						<Segment id="12">
							<True/>
							<TreeModel functionName="regression" noTrueChildStrategy="returnLastPrediction" x-mathContext="float">
								<MiningSchema>
									<MiningField name="x8"/>
									<MiningField name="x16"/>
									<MiningField name="x18"/>
									<MiningField name="x20"/>
									<MiningField name="x26"/>
									<MiningField name="x27"/>
									<MiningField name="x37"/>
									<MiningField name="x40"/>
									<MiningField name="x45"/>
									<MiningField name="x48"/>
									<MiningField name="x54"/>
									<MiningField name="x62"/>
									<MiningField name="x71"/>
									<MiningField name="x72"/>
									<MiningField name="x77"/>
									<MiningField name="x78"/>
									<MiningField name="x87"/>
									<MiningField name="x97"/>
									<MiningField name="x99"/>
									<MiningField name="x100"/>
									<MiningField name="x111"/>
									<MiningField name="x121"/>
									<MiningField name="x156"/>
									<MiningField name="x160"/>
									<MiningField name="x164"/>
								</MiningSchema>
								<Node score="-0.11896165">
									<True/>
									<Node score="-0.06548066">
										<SimplePredicate field="x97" operator="greaterOrEqual" value="0.90234375"/>
										<Node score="0.094383314">
											<SimplePredicate field="x45" operator="greaterOrEqual" value="0.18359375"/>
											<Node score="0.11639929">
												<SimplePredicate field="x18" operator="greaterOrEqual" value="-0.05078125"/>
												<Node score="0.05002553">
													<SimplePredicate field="x16" operator="greaterOrEqual" value="0.07421875"/>
													<Node score="-0.06277425">
														<SimplePredicate field="x48" operator="greaterOrEqual" value="0.71484375"/>
													</Node>
												</Node>
												<Node score="0.03980769">
													<SimplePredicate field="x121" operator="greaterOrEqual" value="-0.12890625"/>
												</Node>
											</Node>
											<Node score="-0.08506008">
												<SimplePredicate field="x156" operator="greaterOrEqual" value="0.05078125"/>
												<Node score="0.08475696">
													<SimplePredicate field="x8" operator="greaterOrEqual" value="0.30078125"/>
												</Node>
											</Node>
											<Node score="-0.020787533">
												<SimplePredicate field="x40" operator="greaterOrEqual" value="0.234375"/>
											</Node>
										</Node>
										<Node score="-0.11205069">
											<SimplePredicate field="x160" operator="greaterOrEqual" value="0.31640625"/>
											<Node score="0.12947536">
												<SimplePredicate field="x100" operator="greaterOrEqual" value="0.38671875"/>
												<Node score="-0.074726604">
													<SimplePredicate field="x111" operator="greaterOrEqual" value="-0.03515625"/>
												</Node>
											</Node>
											<Node score="0.061456073">
												<SimplePredicate field="x78" operator="greaterOrEqual" value="0.4453125"/>
											</Node>
										</Node>
										<Node score="0.18499906">
											<SimplePredicate field="x164" operator="greaterOrEqual" value="0.3359375"/>
											<Node score="-0.003312983">
												<SimplePredicate field="x16" operator="greaterOrEqual" value="-0.0078125"/>
											</Node>
										</Node>
										<Node score="0.049713086">
											<SimplePredicate field="x18" operator="greaterOrEqual" value="0.10546875"/>
										</Node>
									</Node>
									<Node score="0.12846968">
										<SimplePredicate field="x26" operator="greaterOrEqual" value="0.87109375"/>
										<Node score="-0.11494654">
											<SimplePredicate field="x71" operator="greaterOrEqual" value="0.4375"/>
											<Node score="0.035799857">
												<SimplePredicate field="x72" operator="greaterOrEqual" value="0.34375"/>
											</Node>
											<Node score="-0.055880178">
												<SimplePredicate field="x62" operator="greaterOrEqual" value="0.0078125"/>
											</Node>
										</Node>
										<Node score="-0.010603364">
											<SimplePredicate field="x77" operator="greaterOrEqual" value="-0.44921875"/>
											<Node score="-0.0898883">
												<SimplePredicate field="x54" operator="greaterOrEqual" value="0.49609375"/>
											</Node>
										</Node>
									</Node>
									<Node score="-0.109164">
										<SimplePredicate field="x100" operator="greaterOrEqual" value="0.30078125"/>
										<Node score="-0.03973734">
											<SimplePredicate field="x87" operator="greaterOrEqual" value="0.88671875"/>
											<Node score="0.09798323">
												<SimplePredicate field="x99" operator="greaterOrEqual" value="0.296875"/>
											</Node>
										</Node>
										<Node score="-0.017106764">
											<SimplePredicate field="x27" operator="greaterOrEqual" value="0.9765625"/>
										</Node>
									</Node>
									<Node score="-0.01343819">
										<SimplePredicate field="x20" operator="greaterOrEqual" value="0.859375"/>
									</Node>
									<Node score="-0.058784515">
										<SimplePredicate field="x37" operator="greaterOrEqual" value="0.44921875"/>
									</Node>
								</Node>
							</TreeModel>
						</Segment>
						<Segment id="13">
							<True/>
							<TreeModel functionName="regression" noTrueChildStrategy="returnLastPrediction" x-mathContext="float">
								<MiningSchema>
									<MiningField name="x8"/>
									<MiningField name="x9"/>
									<MiningField name="x11"/>
									<MiningField name="x21"/>
									<MiningField name="x25"/>
									<MiningField name="x34"/>
									<MiningField name="x37"/>
									<MiningField name="x41"/>
									<MiningField name="x43"/>
									<MiningField name="x45"/>
									<MiningField name="x74"/>
									<MiningField name="x75"/>
									<MiningField name="x78"/>
									<MiningField name="x96"/>
									<MiningField name="x98"/>
									<MiningField name="x101"/>
									<MiningField name="x129"/>
									<MiningField name="x131"/>
									<MiningField name="x135"/>
									<MiningField name="x143"/>
									<MiningField name="x146"/>
									<MiningField name="x156"/>
									<MiningField name="x158"/>
									<MiningField name="x166"/>
									<MiningField name="x168"/>
								</MiningSchema>
								<Node score="-0.11669023">
									<True/>
									<Node score="-0.059183795">
										<SimplePredicate field="x143" operator="greaterOrEqual" value="0.97265625"/>
										<Node score="-0.08097323">
											<SimplePredicate field="x45" operator="greaterOrEqual" value="0.984375"/>
											<Node score="0.16238783">
												<SimplePredicate field="x168" operator="greaterOrEqual" value="0.828125"/>
												<Node score="-0.015836364">
													<SimplePredicate field="x78" operator="greaterOrEqual" value="-0.0078125"/>
												</Node>
												<Node score="0.033306975">
													<SimplePredicate field="x131" operator="greaterOrEqual" value="0.57421875"/>
												</Node>
											</Node>
											<Node score="-0.012117175">
												<SimplePredicate field="x98" operator="greaterOrEqual" value="0.21875"/>
												<Node score="0.11755649">
													<SimplePredicate field="x101" operator="greaterOrEqual" value="0.84375"/>
												</Node>
											</Node>
											<Node score="0.07692013">
												<SimplePredicate field="x34" operator="greaterOrEqual" value="-0.01171875"/>
											</Node>
										</Node>
										<Node score="-0.07574188">
											<SimplePredicate field="x158" operator="greaterOrEqual" value="0.47265625"/>
											<Node score="-0.1081681">
												<SimplePredicate field="x146" operator="greaterOrEqual" value="-0.05078125"/>
												<Node score="-4.7639836E-4">
													<SimplePredicate field="x8" operator="greaterOrEqual" value="-0.01171875"/>
												</Node>
											</Node>
											<Node score="0.020090744">
												<SimplePredicate field="x21" operator="greaterOrEqual" value="-0.10546875"/>
											</Node>
										</Node>
										<Node score="-0.026381513">
											<SimplePredicate field="x11" operator="greaterOrEqual" value="-0.00390625"/>
											<Node score="0.11382037">
												<SimplePredicate field="x75" operator="greaterOrEqual" value="-0.38671875"/>
											</Node>
										</Node>
										<Node score="0.04006897">
											<SimplePredicate field="x74" operator="greaterOrEqual" value="-0.06640625"/>
										</Node>
									</Node>
									<Node score="0.043012764">
										<SimplePredicate field="x9" operator="greaterOrEqual" value="0.58203125"/>
										<Node score="0.10908886">
											<SimplePredicate field="x41" operator="greaterOrEqual" value="0.98046875"/>
											<Node score="-0.09693148">
												<SimplePredicate field="x156" operator="greaterOrEqual" value="0.390625"/>
												<Node score="0.053146776">
													<SimplePredicate field="x25" operator="greaterOrEqual" value="0.296875"/>
												</Node>
											</Node>
										</Node>
										<Node score="-0.102107465">
											<SimplePredicate field="x166" operator="greaterOrEqual" value="-0.1640625"/>
											<Node score="-0.022036849">
												<SimplePredicate field="x75" operator="greaterOrEqual" value="-0.15625"/>
											</Node>
										</Node>
									</Node>
									<Node score="-0.10640454">
										<SimplePredicate field="x135" operator="greaterOrEqual" value="0.21484375"/>
										<Node score="0.102423646">
											<SimplePredicate field="x129" operator="greaterOrEqual" value="-0.02734375"/>
										</Node>
										<Node score="0.030323584">
											<SimplePredicate field="x96" operator="greaterOrEqual" value="0.875"/>
										</Node>
									</Node>
									<Node score="-0.028448744">
										<SimplePredicate field="x43" operator="greaterOrEqual" value="0.18359375"/>
										<Node score="-0.10235243">
											<SimplePredicate field="x43" operator="greaterOrEqual" value="0.19921875"/>
										</Node>
									</Node>
									<Node score="-0.057953376">
										<SimplePredicate field="x37" operator="greaterOrEqual" value="0.40234375"/>
									</Node>
								</Node>
							</TreeModel>
						</Segment>
						<Segment id="14">
							<True/>
							<TreeModel functionName="regression" noTrueChildStrategy="returnLastPrediction" x-mathContext="float">
								<MiningSchema>
									<MiningField name="x8"/>
									<MiningField name="x9"/>
									<MiningField name="x11"/>
									<MiningField name="x18"/>
									<MiningField name="x23"/>
									<MiningField name="x25"/>
									<MiningField name="x33"/>
									<MiningField name="x37"/>
									<MiningField name="x43"/>
									<MiningField name="x64"/>
									<MiningField name="x71"/>
									<MiningField name="x79"/>
									<MiningField name="x97"/>
									<MiningField name="x99"/>
									<MiningField name="x100"/>
									<MiningField name="x120"/>
									<MiningField name="x128"/>
									<MiningField name="x134"/>
									<MiningField name="x143"/>
									<MiningField name="x152"/>
								</MiningSchema>
								<Node score="-0.11496468">
									<True/>
									<Node score="0.05360123">
										<SimplePredicate field="x97" operator="greaterOrEqual" value="0.98046875"/>
										<Node score="-0.063634574">
											<SimplePredicate field="x18" operator="greaterOrEqual" value="-0.05078125"/>
											<Node score="0.03858657">
												<SimplePredicate field="x64" operator="greaterOrEqual" value="0.10546875"/>
												<Node score="0.08451005">
													<SimplePredicate field="x120" operator="greaterOrEqual" value="-0.01171875"/>
													<Node score="-0.02246961">
														<SimplePredicate field="x152" operator="greaterOrEqual" value="-0.08984375"/>
													</Node>
												</Node>
												<Node score="0.15273811">
													<SimplePredicate field="x11" operator="greaterOrEqual" value="-0.08203125"/>
												</Node>
											</Node>
											<Node score="-0.0034553856">
												<SimplePredicate field="x37" operator="greaterOrEqual" value="-0.02734375"/>
												<Node score="0.13877007">
													<SimplePredicate field="x43" operator="greaterOrEqual" value="0.97265625"/>
												</Node>
											</Node>
											<Node score="0.091185324">
												<SimplePredicate field="x9" operator="greaterOrEqual" value="0.91796875"/>
											</Node>
										</Node>
										<Node score="-0.09724725">
											<SimplePredicate field="x23" operator="greaterOrEqual" value="0.125"/>
											<Node score="-0.07710835">
												<SimplePredicate field="x33" operator="greaterOrEqual" value="-0.00390625"/>
												<Node score="0.13483651">
													<SimplePredicate field="x25" operator="greaterOrEqual" value="0.96875"/>
												</Node>
											</Node>
											<Node score="-0.020229211">
												<SimplePredicate field="x100" operator="greaterOrEqual" value="-0.00390625"/>
											</Node>
										</Node>
										<Node score="0.20818901">
											<SimplePredicate field="x134" operator="greaterOrEqual" value="-0.15234375"/>
											<Node score="0.0015834904">
												<SimplePredicate field="x43" operator="greaterOrEqual" value="0.94921875"/>
											</Node>
										</Node>
										<Node score="-0.07166102">
											<SimplePredicate field="x120" operator="greaterOrEqual" value="-0.296875"/>
										</Node>
									</Node>
									<Node score="-0.09538486">
										<SimplePredicate field="x71" operator="greaterOrEqual" value="0.32421875"/>
										<Node score="-0.07603481">
											<SimplePredicate field="x128" operator="greaterOrEqual" value="0.9375"/>
											<Node score="0.14693896">
												<SimplePredicate field="x25" operator="greaterOrEqual" value="0.87109375"/>
											</Node>
										</Node>
										<Node score="-0.037578832">
											<SimplePredicate field="x8" operator="greaterOrEqual" value="0.07421875"/>
											<Node score="0.07785436">
												<SimplePredicate field="x79" operator="greaterOrEqual" value="-0.46875"/>
											</Node>
										</Node>
										<Node score="0.06302283">
											<SimplePredicate field="x33" operator="greaterOrEqual" value="0.51171875"/>
										</Node>
									</Node>
									<Node score="-0.09487354">
										<SimplePredicate field="x9" operator="greaterOrEqual" value="0.40234375"/>
										<Node score="0.03484802">
											<SimplePredicate field="x99" operator="greaterOrEqual" value="0.31640625"/>
										</Node>
									</Node>
									<Node score="-0.0815858">
										<SimplePredicate field="x33" operator="greaterOrEqual" value="0.8984375"/>
										<Node score="0.03512979">
											<SimplePredicate field="x152" operator="greaterOrEqual" value="0.17578125"/>
										</Node>
									</Node>
									<Node score="-0.037247967">
										<SimplePredicate field="x143" operator="greaterOrEqual" value="0.86328125"/>
									</Node>
								</Node>
							</TreeModel>
						</Segment>
						<Segment id="15">
							<True/>
							<TreeModel functionName="regression" noTrueChildStrategy="returnLastPrediction" x-mathContext="float">
								<MiningSchema>
									<MiningField name="x18"/>
									<MiningField name="x25"/>
									<MiningField name="x27"/>
									<MiningField name="x30"/>
									<MiningField name="x33"/>
									<MiningField name="x34"/>
									<MiningField name="x41"/>
									<MiningField name="x49"/>
									<MiningField name="x65"/>
									<MiningField name="x71"/>
									<MiningField name="x73"/>
									<MiningField name="x75"/>
									<MiningField name="x97"/>
									<MiningField name="x120"/>
									<MiningField name="x121"/>
									<MiningField name="x136"/>
									<MiningField name="x150"/>
									<MiningField name="x153"/>
									<MiningField name="x156"/>
									<MiningField name="x164"/>
									<MiningField name="x166"/>
								</MiningSchema>
								<Node score="-0.113045804">
									<True/>
									<Node score="-0.08345448">
										<SimplePredicate field="x97" operator="greaterOrEqual" value="0.90234375"/>
										<Node score="0.121848844">
											<SimplePredicate field="x18" operator="greaterOrEqual" value="-0.05078125"/>
											<Node score="0.15912606">
												<SimplePredicate field="x41" operator="greaterOrEqual" value="-0.25390625"/>
												<Node score="-0.017743008">
													<SimplePredicate field="x120" operator="greaterOrEqual" value="-0.39453125"/>
													<Node score="0.05970735">
														<SimplePredicate field="x49" operator="greaterOrEqual" value="-0.08984375"/>
													</Node>
												</Node>
												<Node score="0.049794074">
													<SimplePredicate field="x166" operator="greaterOrEqual" value="0.69140625"/>
												</Node>
											</Node>
											<Node score="-0.10017302">
												<SimplePredicate field="x75" operator="greaterOrEqual" value="-0.43359375"/>
												<Node score="-0.011691312">
													<SimplePredicate field="x65" operator="greaterOrEqual" value="0.31640625"/>
												</Node>
											</Node>
										</Node>
										<Node score="0.17645311">
											<SimplePredicate field="x136" operator="greaterOrEqual" value="0.109375"/>
											<Node score="0.04963108">
												<SimplePredicate field="x150" operator="greaterOrEqual" value="-0.19140625"/>
												<Node score="-0.07959987">
													<SimplePredicate field="x25" operator="greaterOrEqual" value="0.9765625"/>
												</Node>
											</Node>
											<Node score="0.041699566">
												<SimplePredicate field="x121" operator="greaterOrEqual" value="0.80078125"/>
											</Node>
										</Node>
										<Node score="-0.046072334">
											<SimplePredicate field="x33" operator="greaterOrEqual" value="0.03125"/>
											<Node score="0.11830963">
												<SimplePredicate field="x73" operator="greaterOrEqual" value="-0.48828125"/>
											</Node>
										</Node>
										<Node score="0.011212088">
											<SimplePredicate field="x75" operator="greaterOrEqual" value="-0.03515625"/>
										</Node>
									</Node>
									<Node score="-0.09185832">
										<SimplePredicate field="x71" operator="greaterOrEqual" value="0.32421875"/>
										<Node score="-0.11202618">
											<SimplePredicate field="x120" operator="greaterOrEqual" value="-0.30859375"/>
											<Node score="0.033573207">
												<SimplePredicate field="x33" operator="greaterOrEqual" value="0.51171875"/>
											</Node>
											<Node score="-0.0771748">
												<SimplePredicate field="x156" operator="greaterOrEqual" value="0.33984375"/>
											</Node>
										</Node>
										<Node score="0.18652548">
											<SimplePredicate field="x164" operator="greaterOrEqual" value="0.80859375"/>
											<Node score="-0.05949784">
												<SimplePredicate field="x153" operator="greaterOrEqual" value="0.5859375"/>
											</Node>
										</Node>
										<Node score="0.042964023">
											<SimplePredicate field="x27" operator="greaterOrEqual" value="0.9765625"/>
										</Node>
									</Node>
									<Node score="-0.067469805">
										<SimplePredicate field="x136" operator="greaterOrEqual" value="0.96875"/>
										<Node score="0.035076525">
											<SimplePredicate field="x156" operator="greaterOrEqual" value="-0.1796875"/>
										</Node>
									</Node>
									<Node score="-0.008056909">
										<SimplePredicate field="x30" operator="greaterOrEqual" value="0.10546875"/>
									</Node>
									<Node score="-0.051637948">
										<SimplePredicate field="x34" operator="greaterOrEqual" value="0.1484375"/>
									</Node>
								</Node>
							</TreeModel>
						</Segment>
						<Segment id="16">
							<True/>
							<TreeModel functionName="regression" noTrueChildStrategy="returnLastPrediction" x-mathContext="float">
								<MiningSchema>
									<MiningField name="x1"/>
									<MiningField name="x8"/>
									<MiningField name="x9"/>
									<MiningField name="x22"/>
									<MiningField name="x26"/>
									<MiningField name="x27"/>
									<MiningField name="x35"/>
									<MiningField name="x39"/>
									<MiningField name="x42"/>
									<MiningField name="x43"/>
									<MiningField name="x54"/>
									<MiningField name="x71"/>
									<MiningField name="x72"/>
									<MiningField name="x87"/>
									<MiningField name="x98"/>
									<MiningField name="x111"/>
									<MiningField name="x121"/>
									<MiningField name="x136"/>
									<MiningField name="x153"/>
									<MiningField name="x164"/>
									<MiningField name="x168"/>
								</MiningSchema>
								<Node score="-0.1116057">
									<True/>
									<Node score="4.7343012E-4">
										<SimplePredicate field="x71" operator="greaterOrEqual" value="0.90234375"/>
										<Node score="-0.056267347">
											<SimplePredicate field="x35" operator="greaterOrEqual" value="0.03515625"/>
											<Node score="0.11626192">
												<SimplePredicate field="x72" operator="greaterOrEqual" value="-0.51953125"/>
												<Node score="0.13786177">
													<SimplePredicate field="x1" operator="greaterOrEqual" value="0.96875"/>
												</Node>
												<Node score="-0.04767087">
													<SimplePredicate field="x54" operator="greaterOrEqual" value="0.89453125"/>
												</Node>
											</Node>
										</Node>
										<Node score="0.10970582">
											<SimplePredicate field="x8" operator="greaterOrEqual" value="0.1875"/>
											<Node score="-0.062905304">
												<SimplePredicate field="x39" operator="greaterOrEqual" value="-0.27734375"/>
												<Node score="0.075439684">
													<SimplePredicate field="x98" operator="greaterOrEqual" value="0.26171875"/>
												</Node>
											</Node>
										</Node>
										<Node score="-0.026210357">
											<SimplePredicate field="x168" operator="greaterOrEqual" value="0.63671875"/>
											<Node score="0.095604114">
												<SimplePredicate field="x22" operator="greaterOrEqual" value="-0.10546875"/>
											</Node>
										</Node>
										<Node score="-0.06774863">
											<SimplePredicate field="x121" operator="greaterOrEqual" value="-0.14453125"/>
										</Node>
									</Node>
									<Node score="0.20022777">
										<SimplePredicate field="x164" operator="greaterOrEqual" value="0.81640625"/>
										<Node score="-0.10995396">
											<SimplePredicate field="x121" operator="greaterOrEqual" value="-0.17578125"/>
											<Node score="-0.028149659">
												<SimplePredicate field="x43" operator="greaterOrEqual" value="0.49609375"/>
												<Node score="0.11927195">
													<SimplePredicate field="x87" operator="greaterOrEqual" value="0.984375"/>
												</Node>
											</Node>
											<Node score="-0.06598672">
												<SimplePredicate field="x26" operator="greaterOrEqual" value="0.55859375"/>
											</Node>
										</Node>
										<Node score="0.033289265">
											<SimplePredicate field="x153" operator="greaterOrEqual" value="0.15234375"/>
											<Node score="-0.06863034">
												<SimplePredicate field="x111" operator="greaterOrEqual" value="-0.05078125"/>
											</Node>
										</Node>
										<Node score="0.022349872">
											<SimplePredicate field="x27" operator="greaterOrEqual" value="-0.09765625"/>
										</Node>
									</Node>
									<Node score="0.04302053">
										<SimplePredicate field="x42" operator="greaterOrEqual" value="0.8515625"/>
									</Node>
									<Node score="-0.093786396">
										<SimplePredicate field="x136" operator="greaterOrEqual" value="0.421875"/>
										<Node score="0.1197353">
											<SimplePredicate field="x1" operator="greaterOrEqual" value="0.27734375"/>
										</Node>
									</Node>
									<Node score="-0.06567951">
										<SimplePredicate field="x9" operator="greaterOrEqual" value="0.2890625"/>
									</Node>
								</Node>
							</TreeModel>
						</Segment>
						<Segment id="17">
							<True/>
							<TreeModel functionName="regression" noTrueChildStrategy="returnLastPrediction" x-mathContext="float">
								<MiningSchema>
									<MiningField name="x8"/>
									<MiningField name="x9"/>
									<MiningField name="x12"/>
									<MiningField name="x14"/>
									<MiningField name="x18"/>
									<MiningField name="x26"/>
									<MiningField name="x31"/>
									<MiningField name="x34"/>
									<MiningField name="x39"/>
									<MiningField name="x40"/>
									<MiningField name="x44"/>
									<MiningField name="x45"/>
									<MiningField name="x88"/>
									<MiningField name="x89"/>
									<MiningField name="x96"/>
									<MiningField name="x97"/>
									<MiningField name="x108"/>
									<MiningField name="x124"/>
									<MiningField name="x127"/>
									<MiningField name="x128"/>
									<MiningField name="x150"/>
									<MiningField name="x152"/>
									<MiningField name="x165"/>
								</MiningSchema>
								<Node score="-0.11026634">
									<True/>
									<Node score="-0.0724487">
										<SimplePredicate field="x97" operator="greaterOrEqual" value="0.90234375"/>
										<Node score="0.08035356">
											<SimplePredicate field="x44" operator="greaterOrEqual" value="0.90625"/>
											<Node score="0.014214239">
												<SimplePredicate field="x8" operator="greaterOrEqual" value="-0.01171875"/>
												<Node score="0.04836687">
													<SimplePredicate field="x88" operator="greaterOrEqual" value="-0.98046875"/>
													<Node score="0.111782864">
														<SimplePredicate field="x124" operator="greaterOrEqual" value="-0.01953125"/>
													</Node>
												</Node>
											</Node>
											<Node score="0.09365355">
												<SimplePredicate field="x152" operator="greaterOrEqual" value="-0.11328125"/>
												<Node score="-0.061410982">
													<SimplePredicate field="x127" operator="greaterOrEqual" value="-0.18359375"/>
												</Node>
											</Node>
											<Node score="-0.03900687">
												<SimplePredicate field="x108" operator="greaterOrEqual" value="0.71484375"/>
											</Node>
										</Node>
										<Node score="-0.09757169">
											<SimplePredicate field="x14" operator="greaterOrEqual" value="-0.08203125"/>
											<Node score="-0.06211878">
												<SimplePredicate field="x18" operator="greaterOrEqual" value="0.05078125"/>
												<Node score="0.033058126">
													<SimplePredicate field="x45" operator="greaterOrEqual" value="0.18359375"/>
												</Node>
											</Node>
											<Node score="0.014277855">
												<SimplePredicate field="x8" operator="greaterOrEqual" value="0.015625"/>
											</Node>
										</Node>
										<Node score="-0.001769602">
											<SimplePredicate field="x96" operator="greaterOrEqual" value="0.65625"/>
											<Node score="0.13732605">
												<SimplePredicate field="x89" operator="greaterOrEqual" value="-0.2109375"/>
											</Node>
										</Node>
										<Node score="0.026173476">
											<SimplePredicate field="x150" operator="greaterOrEqual" value="-0.33203125"/>
										</Node>
									</Node>
									<Node score="-0.021310996">
										<SimplePredicate field="x9" operator="greaterOrEqual" value="0.40234375"/>
										<Node score="-0.035533674">
											<SimplePredicate field="x45" operator="greaterOrEqual" value="-0.02734375"/>
											<Node score="-0.014614898">
												<SimplePredicate field="x39" operator="greaterOrEqual" value="-0.2890625"/>
												<Node score="-0.083660655">
													<SimplePredicate field="x97" operator="greaterOrEqual" value="0.60546875"/>
												</Node>
											</Node>
											<Node score="0.119414404">
												<SimplePredicate field="x12" operator="greaterOrEqual" value="-0.18359375"/>
											</Node>
										</Node>
										<Node score="-0.10526084">
											<SimplePredicate field="x165" operator="greaterOrEqual" value="-0.19140625"/>
										</Node>
									</Node>
									<Node score="-0.036262866">
										<SimplePredicate field="x26" operator="greaterOrEqual" value="0.64453125"/>
										<Node score="0.07595744">
											<SimplePredicate field="x128" operator="greaterOrEqual" value="0.3203125"/>
										</Node>
										<Node score="-0.096421875">
											<SimplePredicate field="x31" operator="greaterOrEqual" value="-0.16796875"/>
										</Node>
									</Node>
									<Node score="-0.07986476">
										<SimplePredicate field="x34" operator="greaterOrEqual" value="0.1484375"/>
										<Node score="0.12161527">
											<SimplePredicate field="x40" operator="greaterOrEqual" value="-0.09765625"/>
										</Node>
									</Node>
									<Node score="-0.062053867">
										<SimplePredicate field="x96" operator="greaterOrEqual" value="0.8515625"/>
									</Node>
								</Node>
							</TreeModel>
						</Segment>
						<Segment id="18">
							<True/>
							<TreeModel functionName="regression" noTrueChildStrategy="returnLastPrediction" x-mathContext="float">
								<MiningSchema>
									<MiningField name="x8"/>
									<MiningField name="x9"/>
									<MiningField name="x18"/>
									<MiningField name="x25"/>
									<MiningField name="x36"/>
									<MiningField name="x40"/>
									<MiningField name="x42"/>
									<MiningField name="x45"/>
									<MiningField name="x46"/>
									<MiningField name="x61"/>
									<MiningField name="x65"/>
									<MiningField name="x72"/>
									<MiningField name="x93"/>
									<MiningField name="x95"/>
									<MiningField name="x96"/>
									<MiningField name="x98"/>
